<?xml version="1.0"?>
<opencv_storage>
<opencv_ml_lr>
  <format>3</format>
  <classifier>"Logisitic Regression Classifier"</classifier>
  <alpha>1.0000000000000000e-004</alpha>
  <iterations>10</iterations>
  <norm>1</norm>
  <train_method>0</train_method>
  <learnt_thetas type_id="opencv-matrix">
    <rows>1</rows>
    <cols>785</cols>
    <dt>f</dt>
    <data>
      3.28210490e-006 0. 0. 0. 0. 0. 0. 0. 0. 0. 0. 0. 0. 0. 0.
      -7.52719279e-005 0. 0. 0. 0. 0. 0. 0. 0. 0. 0. 0. 0. 0. 0. 0. 0.
      0. 0. 0. 0. 0. 0. -7.52719279e-005 -7.52719279e-005
      -7.52719279e-005 -7.52719279e-005 -7.52719279e-005
      -7.52719279e-005 -7.52719279e-005 -7.52719279e-005
      -7.52719279e-005 -7.52719279e-005 0. 0. 0. 0. 0. 0. 0. 0. 0. 0. 0.
      0. 0. 0. 0. 0. -7.52719279e-005 -7.52719279e-005 -7.52719279e-005
      -7.52719279e-005 -7.52719279e-005 -7.52719279e-005
      -1.04459308e-004 -1.50094304e-004 -1.50094304e-004
      -1.88767721e-004 -1.04459308e-004 -1.04459308e-004
      -7.52719279e-005 0. 0. 0. 0. 0. 0. 0. 0. 0. 0. 0. 0. 0. 0.
      -7.52719279e-005 -7.52719279e-005 -7.52719279e-005 0.
      -2.91873966e-005 -1.70262283e-004 -2.15216001e-004
      -2.93757417e-004 -2.93757417e-004 -2.45270610e-004
      -1.88504142e-004 -1.58449504e-004 -1.88767721e-004
      -1.88767721e-004 -1.43132725e-004 -1.13945309e-004 0. 0. 0. 0. 0.
      0. 0. 0. 0. 0. 0. -7.52719279e-005 -7.52719279e-005
      -7.52719279e-005 0. -8.59538923e-005 -2.93296063e-004
      -3.41782870e-004 -3.41782870e-004 -3.41782870e-004
      -2.96147860e-004 -2.96147860e-004 -2.96147860e-004
      -3.41782870e-004 -2.93757417e-004 -1.88504142e-004
      -1.88767721e-004 -1.88767721e-004 -6.78607976e-005 0. 0. 0. 0. 0.
      0. 0. 0. 0. -7.52719279e-005 -7.52719279e-005 0. -2.91873966e-005
      -2.02707335e-004 -2.93296063e-004 -3.41782870e-004
      -3.44197004e-004 -2.98561994e-004 -2.53608305e-004
      -1.75934110e-004 -2.24420917e-004 -2.81187415e-004
      -2.81187415e-004 -3.26141104e-004 -2.96147860e-004
      -2.36990934e-004 -3.12262855e-004 -1.88767721e-004
      -6.78607976e-005 -3.86733918e-005 0. 0. 0. 0. 0. 0.
      -7.52719279e-005 -7.52719279e-005 0. -2.91873966e-005
      -2.02707335e-004 -3.41782870e-004 -3.44197004e-004
      -2.50536570e-004 -1.27908672e-004 -8.92352837e-005
      -8.92352837e-005 -5.91806529e-005 -5.91806529e-005
      -8.92352837e-005 -1.37260693e-004 -1.94027190e-004
      -2.42514012e-004 -2.28287056e-004 -2.36990934e-004
      -3.12262855e-004 -1.88767721e-004 -3.86733918e-005 0. 0. 0. 0. 0.
      0. 9.80508703e-005 9.80508703e-005 1.44135396e-004
      -2.93845405e-005 -1.19973236e-004 -1.70874235e-004
      -3.07270011e-006 1.14142138e-004 1.14142138e-004 1.14142138e-004
      1.14142138e-004 1.14142138e-004 1.14142138e-004 1.14142138e-004
      1.14142138e-004 1.14142138e-004 9.35022217e-006 -2.07043940e-005
      -1.24247272e-005 2.06402510e-005 -3.12262855e-004 5.98269871e-005
      1.34649395e-004 1.73322784e-004 0. 1.73322784e-004 1.73322784e-004
      9.80508703e-005 9.80508703e-005 1.44135396e-004 5.73142788e-005
      -1.19973236e-004 -1.70874235e-004 -3.07270011e-006 1.14142138e-004
      1.14142138e-004 1.73322784e-004 1.73322784e-004 1.73322784e-004
      1.73322784e-004 1.73322784e-004 1.73322784e-004 1.73322784e-004
      1.14142138e-004 1.14142138e-004 5.73756442e-005 -2.07043940e-005
      -3.80790079e-005 -9.33050615e-005 -9.39863676e-005 8.90143856e-005
      1.73322784e-004 0. 0. 1.73322784e-004 9.80508703e-005
      -7.52719279e-005 -1.16008516e-004 -2.48342345e-004
      -3.44197004e-004 -2.21349183e-004 -5.91806529e-005
      -5.91806529e-005 8.28021730e-005 8.28021730e-005 8.28021730e-005
      0. 0. 0. 0. 0. 0. 0. -1.15947143e-004 -1.63972567e-004
      3.60620907e-005 6.91270689e-005 -2.67309166e-004 -1.13495793e-004
      0. 0. 0. 0. -7.52719279e-005 -2.91873966e-005 -1.54681897e-004
      -3.52476723e-004 -3.15009645e-004 -1.07667467e-004
      -5.91806529e-005 0. 8.28021730e-005 8.28021730e-005
      8.28021730e-005 0. 0. 0. 0. 0. 0. 0. 1.00923316e-004
      -1.50238311e-005 6.21376894e-005 -4.20580363e-005 -1.20750847e-004
      -1.92037216e-004 0. 0. 0. -7.52719279e-005 1.51095710e-005
      4.27934356e-005 -4.15149698e-005 -5.02371840e-005 9.91321504e-005
      1.86292367e-004 3.46396351e-004 4.29198495e-004 3.60778038e-004
      3.60778038e-004 3.46396351e-004 3.46396351e-004 3.46396351e-004
      3.46396351e-004 3.46396351e-004 3.45068052e-004 3.45068052e-004
      3.45068052e-004 3.45068052e-004 1.97920075e-004 1.78521790e-004
      1.21606558e-004 6.16395409e-005 -7.85780503e-005 4.21727855e-005
      0. 0. -7.52719279e-005 1.51095710e-005 -3.24784887e-005
      -1.93674758e-004 -6.95365889e-005 2.38728840e-004 3.46396351e-004
      4.29198495e-004 4.29198495e-004 4.29198495e-004 4.31739085e-004
      4.31739085e-004 4.31739085e-004 4.31739085e-004 4.31739085e-004
      4.31739085e-004 5.12743485e-004 6.00551313e-004 6.00551313e-004
      4.99627960e-004 4.42861492e-004 3.83680832e-004 2.78740190e-004
      1.37768802e-004 8.09301673e-006 4.10360626e-005 0. 0.
      -7.52719279e-005 -1.91280444e-004 3.77547403e-005 -5.41391601e-005
      2.25105669e-006 3.76809738e-004 5.06300887e-004 4.05377592e-004
      4.05377592e-004 4.05377592e-004 3.22575448e-004 3.22575448e-004
      3.22575448e-004 3.22575448e-004 3.22575448e-004 4.09246539e-004
      4.09246539e-004 4.06705862e-004 4.06705862e-004 5.15298569e-004
      4.66111407e-004 3.39630235e-004 1.75816516e-004 8.57948689e-005
      1.38013929e-004 3.21014697e-004 1.89597122e-004 0. 3.33208191e-005
      -1.68331258e-006 1.41923549e-004 6.70375084e-005 2.54255312e-004
      4.45549871e-004 4.45549871e-004 4.45549871e-004 4.45549871e-004
      5.13970328e-004 4.28627536e-004 3.60207050e-004 3.60207050e-004
      3.60207050e-004 3.60207050e-004 3.60207050e-004 2.79202708e-004
      1.91394924e-004 1.91394924e-004 1.91394924e-004 5.18262568e-005
      -7.98262554e-005 -1.12295063e-004 -9.12576870e-005 9.98296673e-005
      2.79978616e-004 1.89597122e-004 8.10043930e-005 1.14325187e-004
      -1.68331258e-006 5.65807422e-005 -1.24545273e-004 8.11047212e-005
      2.72399309e-004 1.91394924e-004 1.91394924e-004 1.91394924e-004
      1.91394924e-004 1.91394924e-004 1.91394924e-004 1.91394924e-004
      1.91394924e-004 1.91394924e-004 1.91394924e-004 1.91394924e-004
      1.91394924e-004 1.91394924e-004 8.28021730e-005 -9.54398856e-005
      -1.88418999e-004 -2.50075216e-004 -2.87816394e-004
      -1.04877028e-004 0. 0. 8.10043930e-005 5.73245507e-006
      -1.16008516e-004 -2.68849573e-004 -3.14142409e-004
      -1.08492393e-004 4.41287775e-005 8.28021730e-005 8.28021730e-005
      8.28021730e-005 8.28021730e-005 8.28021730e-005 8.28021730e-005
      8.28021730e-005 8.28021730e-005 8.28021730e-005 8.28021730e-005
      8.28021730e-005 0. 0. -3.86733918e-005 -1.40393575e-004
      -2.47599673e-004 -1.66909478e-004 -2.87816394e-004
      -1.04877028e-004 0. 0. 0. -1.05326559e-004 -1.16008516e-004
      -2.09668942e-004 -3.14142409e-004 -1.91294559e-004
      -9.78540484e-005 -5.91806529e-005 0. 0. 0. 0. 0. 0. 0. 0. 0. 0. 0.
      -3.86733918e-005 -3.86733918e-005 -1.88418999e-004
      -2.20020578e-004 -2.87816394e-004 -2.39329602e-004 0. 0. 0. 0.
      -1.05326559e-004 -1.62093042e-004 -1.64033932e-004
      -2.75469007e-004 -2.20481976e-004 -9.78540484e-005
      -9.78540484e-005 -5.91806529e-005 0. 0. 0. 0. 0. 0. 0. 0.
      -3.86733918e-005 -3.86733918e-005 -3.86733918e-005
      -1.99574250e-004 -2.47599673e-004 -2.60569883e-004
      -2.87816394e-004 -1.80148927e-004 0. 0. 0. 0. -1.05326559e-004
      -1.62093042e-004 -1.16008516e-004 -1.97856149e-004
      -1.68262908e-004 -1.75528257e-004 -1.27041450e-004
      -9.78540484e-005 -5.91806529e-005 0. 0. 0. 0. 0. 0.
      -3.86733918e-005 -3.86733918e-005 -9.78540484e-005
      -9.78540484e-005 -2.93234654e-004 -3.62290099e-004
      -2.87816394e-004 -2.39329602e-004 0. 0. 0. 0. 0. 0.
      -1.05326559e-004 -8.68211064e-005 -1.52902459e-004
      -1.97856149e-004 -1.61982607e-004 -2.21163267e-004
      -1.75528257e-004 -1.27041450e-004 -9.78540484e-005
      -5.91806529e-005 -5.91806529e-005 -9.78540484e-005
      -9.78540484e-005 -9.78540484e-005 -9.78540484e-005
      -1.43489044e-004 -1.43489044e-004 -2.45209259e-004
      -2.83748668e-004 -2.60569883e-004 -2.42181399e-004
      -1.34513932e-004 0. 0. 0. 0. 0. 0. -7.52719279e-005
      -1.62093042e-004 -3.00546253e-005 -1.23033751e-004
      -1.97856149e-004 -1.92037216e-004 -2.21163267e-004
      -2.21163267e-004 -1.72676460e-004 -1.72676460e-004
      -1.72676460e-004 -1.72676460e-004 -1.43489044e-004
      -1.43489044e-004 -1.43489044e-004 -1.72676460e-004
      -2.35723244e-004 -3.13803292e-004 -2.71701370e-004
      -1.83000753e-004 -1.34513932e-004 0. 0. 0. 0. 0. 0. 0. 0.
      -1.32038404e-004 -1.62093042e-004 -7.80800474e-005
      -1.23033751e-004 -1.97856149e-004 -1.53363842e-004
      -1.92037216e-004 -2.21163267e-004 -2.21163267e-004
      -2.21163267e-004 -1.72676460e-004 -1.72676460e-004
      -1.72676460e-004 -1.34003043e-004 -2.68168282e-004
      -3.16655118e-004 -2.12520725e-004 -1.83000753e-004
      -1.34513932e-004 0. 0. 0. 0. 0. 0. 0. 0. 0. 0. -1.32038404e-004
      -1.62093042e-004 -1.23033751e-004 -1.23033751e-004
      -1.23033751e-004 -7.80800474e-005 -1.55754256e-004
      -1.94427659e-004 -1.46402250e-004 -1.46402250e-004
      -1.55754256e-004 -1.55754256e-004 -2.57474458e-004
      -2.57474458e-004 -2.57474458e-004 -1.83000753e-004
      -1.05326559e-004 0. 0. 0. 0. 0. 0. 0. 0. 0. 0. 0. -5.67664902e-005
      -1.32038404e-004 -1.32038404e-004 -1.98305672e-004
      -1.23033751e-004 -1.23033751e-004 -7.80800474e-005
      -7.80800474e-005 -7.80800474e-005 -1.55754256e-004
      -2.12520725e-004 -2.57474458e-004 -2.57474458e-004
      -3.32746393e-004 -1.05326559e-004 -1.05326559e-004 0. 0. 0. 0. 0.
      0. 0. 0. 0. 0. 0. 0. 0. -5.67664902e-005 -1.32038404e-004
      -1.32038404e-004 -1.76992107e-004 -1.76992107e-004
      -2.07046716e-004 -2.07046716e-004 -1.79800234e-004
      -2.55072169e-004 -2.07046716e-004 -2.07046716e-004
      -1.50280248e-004 -1.05326559e-004 -7.52719279e-005 0. 0. 0. 0. 0.
      0. 0. 0. 0. 0. 0. 0. 0. 0. 0. 0. -1.32038404e-004 -1.32038404e-004
      -1.32038404e-004 -1.76992107e-004 -1.76992107e-004
      -1.76992107e-004 -1.76992107e-004 -1.20225624e-004
      -7.52719279e-005 -7.52719279e-005 0. 0. 0. 0. 0. 0. 0. 0. 0. 0. 0.
      0. 0. 0. 0. 0. 0. 0. 0. 0. 0. 0. -7.52719279e-005 -7.52719279e-005
      0. 0. 0. 0. 0. 0. 0. 0. 0. 0. 0. 0. 0. 0. 0.</data></learnt_thetas>
  <n_labels type_id="opencv-matrix">
    <rows>2</rows>
    <cols>1</cols>
    <dt>i</dt>
    <data>
      0 1</data></n_labels>
  <o_labels type_id="opencv-matrix">
    <rows>2</rows>
    <cols>1</cols>
    <dt>i</dt>
    <data>
      0 1</data></o_labels></opencv_ml_lr>
</opencv_storage>
